SVM-light Version V6.02
0 # kernel type
3 # kernel parameter -d 
1 # kernel parameter -g 
1 # kernel parameter -s 
1 # kernel parameter -r 
empty# kernel parameter -u 
6 # highest feature index 
28 # number of training documents 
27 # number of support vectors plus 1 
0.98411022 # threshold b, each following line is a SV (starting with alpha*y)
-1.0374922789307972657640247865496e-06 1:623 2:0.63 3:498 4:34 5:-0.0099999998 6:371 #
1.0374922789307972657640247865496e-06 1:319 2:0.61000001 3:517 4:51 5:0 6:142 #
-1.0374922789307972657640247865496e-06 1:368 2:0.62 3:510 4:49 5:0.0099999998 6:-7 #
1.0374922789307972657640247865496e-06 1:1298 2:0.62 3:580 4:29 5:0.02 6:339 #
-1.0374922789307972657640247865496e-06 1:919 2:0.63999999 3:521 4:25 5:0.02 6:68 #
1.0374922789307972657640247865496e-06 1:427 2:0.63 3:321 4:33 5:0.050000001 6:67 #
-5.0043796327133913883503319244839e-07 1:268 2:0.61000001 3:375 4:268 5:0.61000001 6:375 #
1.0374922789307972657640247865496e-06 1:859 2:0.63999999 3:611 4:33 5:0.029999999 6:-113 #
-1.0374922789307972657640247865496e-06 1:1077 2:0.62 3:494 4:24 5:-0.029999999 6:-7 #
1.0374922789307972657640247865496e-06 1:465 2:0.63 3:422 4:38 5:0 6:101 #
-1.0374922789307972657640247865496e-06 1:577 2:0.62 3:359 4:31 5:0.0099999998 6:-232 #
1.0374922789307972657640247865496e-06 1:1145 2:0.68000001 3:718 4:37 5:0.02 6:389 #
-1.0374922789307972657640247865496e-06 1:826 2:0.61000001 3:724 4:47 5:-0.059999999 6:391 #
1.0374922789307972657640247865496e-06 1:740 2:0.66000003 3:336 4:22 5:0.0099999998 6:-89 #
-1.5904176600794728714014056748099e-07 1:1108 2:0.66000003 3:329 4:18 5:0 6:148 #
1.0374922789307972657640247865496e-06 1:501 2:0.62 3:508 4:36 5:-0.0099999998 6:86 #
-1.0374922789307972657640247865496e-06 1:546 2:0.61000001 3:591 4:45 5:-0.0099999998 6:83 #
1.0374922789307972657640247865496e-06 1:1053 2:0.64999998 3:501 4:36 5:-0.0099999998 6:12 #
-1.0374922789307972657640247865496e-06 1:951 2:0.67000002 3:295 4:21 5:0.029999999 6:103 #
1.0374922789307972657640247865496e-06 1:687 2:0.64999998 3:431 4:31 5:0.0099999998 6:41 #
-1.0374922789307972657640247865496e-06 1:656 2:0.63999999 3:390 4:33 5:0.0099999998 6:-108 #
1.0374922789307972657640247865496e-06 1:1017 2:0.66000003 3:489 4:34 5:0 6:-2 #
-6.3953192186115144147502556762341e-07 1:1234 2:0.61000001 3:620 4:44 5:-0.0099999998 6:-4 #
1.0374922789307972657640247865496e-06 1:718 2:0.64999998 3:425 4:31 5:0 6:-6 #
-7.7597290672115669054762984724327e-07 1:894 2:0.62 3:453 4:35 5:-0.02 6:-158 #
-1.0374922789307972657640247865496e-06 1:983 2:0.66000003 3:491 4:32 5:-0.0099999998 6:196 #
