SVM-light Version V6.02
3 # kernel type
3 # kernel parameter -d 
1 # kernel parameter -g 
1 # kernel parameter -s 
1 # kernel parameter -r 
empty# kernel parameter -u 
6 # highest feature index 
157 # number of training documents 
109 # number of support vectors plus 1 
-1 # threshold b, each following line is a SV (starting with alpha*y)
-4.1945288323948863862256075663026 1:102.03573 2:0.089839175 3:142.50293 4:7.0240359 5:0.0056448788 6:76.182869 #
4.1945288323948863862256075663026 1:54.404911 2:0.1703724 3:86.8442 4:2.9228697 5:0.011948811 6:-0.1995928 #
4.1945288323948863862256075663026 1:94.407265 2:0.17460872 3:129.15509 4:2.1981151 5:-0.012144476 6:31.50045 #
-4.1945288323948863862256075663026 1:3.0965848 2:0.07412976 3:8.5756493 4:-0.42711517 5:-0.0012609637 6:-53.34103 #
4.1945288323948863862256075663026 1:63.110928 2:0.079425059 3:42.004246 4:6.6565804 5:-0.00021592047 6:-17.989143 #
-4.1945288323948863862256075663026 1:90.135277 2:0.088389106 3:68.484718 4:3.0115128 5:-0.002285046 6:33.888245 #
4.1945288323948863862256075663026 1:70.469193 2:0.085385069 3:61.77776 4:0.43021774 5:-0.0030280889 6:11.244804 #
-4.1945288323948863862256075663026 1:10.235422 2:0.073525496 3:36.714031 4:-1.0167259 5:0.0047525307 6:-152.29259 #
4.1945288323948863862256075663026 1:78.37014 2:0.085308395 3:37.617729 4:6.9352808 5:-0.0055102641 6:4.4185376 #
-4.1945288323948863862256075663026 1:2.3141336 2:0.16063572 3:24.094555 4:0.79195106 5:-0.01575765 6:13.504594 #
4.1945288323948863862256075663026 1:84.505737 2:0.086808152 3:28.988861 4:0.4589693 5:0.0055250889 6:-4.0260029 #
-4.1945288323948863862256075663026 1:3.4340746 2:0.058041591 3:37.372433 4:1.7515396 5:-0.026582092 6:33.046257 #
4.1945288323948863862256075663026 1:114.72729 2:0.091077402 3:26.165976 4:-1.3162395 5:0.0040902677 6:-1.7955928 #
-4.1945288323948863862256075663026 1:100.83397 2:0.086808152 3:31.268883 4:-1.2017609 5:-0.0030310231 6:-111.23405 #
4.1945288323948863862256075663026 1:125.03985 2:0.081115812 3:28.771715 4:-2.0624602 5:-0.0015932678 6:0.97859067 #
-4.1945288323948863862256075663026 1:2.5400178 2:0.078983054 3:34.506378 4:0.29388607 5:-0.0082102967 6:28.376326 #
4.1945288323948863862256075663026 1:139.6356 2:0.09554325 3:20.550068 4:7.8451877 5:0.0026391987 6:-30.840807 #
-4.1945288323948863862256075663026 1:3.5674584 2:0.080077738 3:23.002413 4:3.5674584 5:0.080077738 6:23.002413 #
4.1945288323948863862256075663026 1:135.49565 2:0.088231236 3:29.423151 4:-4.1399555 5:-0.0073120133 6:8.8730822 #
-4.1945288323948863862256075663026 1:1.6798295 2:0.07838095 3:29.37661 4:0.46163926 5:0.0031155609 6:14.178612 #
4.1945288323948863862256075663026 1:61.778114 2:0.088389106 3:44.143761 4:3.4983776 5:0.0062156557 6:-25.049183 #
-4.1945288323948863862256075663026 1:324.76199 2:0.16797082 3:289.95123 4:0.45449376 5:0.0073730093 6:-44.745975 #
4.1945288323948863862256075663026 1:183.11591 2:0.077687316 3:142.06226 4:-0.27949044 5:0.00082341395 6:14.888733 #
-4.1945288323948863862256075663026 1:319.7294 2:0.17336921 3:281.54718 4:1.4369172 5:0.0020331056 6:3.2198503 #
4.1945288323948863862256075663026 1:284.76028 2:0.086853035 3:87.312569 4:-11.194074 5:0.0028491975 6:-32.868931 #
-4.1945288323948863862256075663026 1:542.77197 2:0.12957829 3:467.88657 4:-6.2245917 5:-0.028099556 6:149.95346 #
4.1945288323948863862256075663026 1:299.42404 2:0.078212388 3:137.69554 4:-8.4428759 5:0.0025816476 6:-30.170807 #
-4.1945288323948863862256075663026 1:2.3990614 2:0.080775343 3:9.3573761 4:0.43801481 5:0.036027491 6:3.4211667 #
4.1945288323948863862256075663026 1:74.22287 2:0.087325893 3:61.821709 4:9.4523525 5:-0.00072061876 6:13.43625 #
-4.1945288323948863862256075663026 1:65.007004 2:0.089254864 3:158.12645 4:19.383207 5:-0.00054234726 6:42.452782 #
4.1945288323948863862256075663026 1:101.77866 2:0.091551341 3:52.451096 4:10.403485 5:0.002107264 6:7.7346759 #
-4.1945288323948863862256075663026 1:13.23482 2:0.096873552 3:39.385422 4:3.7817061 5:0.0050015324 6:12.8276 #
4.1945288323948863862256075663026 1:127.26037 2:0.090142854 3:74.356422 4:12.205645 5:0.0048914729 6:-8.6555939 #
-4.1945288323948863862256075663026 1:58.916298 2:0.095448941 3:36.943741 4:-0.017961442 5:-0.0063169883 6:22.41993 #
4.1945288323948863862256075663026 1:187.79388 2:0.086986102 3:79.761314 4:0.085807256 5:0.0019790868 6:14.109741 #
-4.1945288323948863862256075663026 1:2.7014091 2:0.088135175 3:7.4871397 4:-0.01752739 5:0.00027427959 6:-2.4206698 #
4.1945288323948863862256075663026 1:35.268394 2:0.084003843 3:135.28487 4:14.156654 5:-0.0010228343 6:16.941589 #
-4.1945288323948863862256075663026 1:78.268997 2:0.17919196 3:44.47966 4:-0.16819483 5:0.0023011251 6:6.8790455 #
4.1945288323948863862256075663026 1:185.05782 2:0.08430443 3:149.7224 4:0.75297838 5:-0.0053109555 6:11.918103 #
-4.1945288323948863862256075663026 1:200.14989 2:0.088734373 3:69.488571 4:15.310162 5:-0.002107264 6:7.5735321 #
-4.1945288323948863862256075663026 1:202.79196 2:0.082281828 3:117.45419 4:19.87303 5:-0.0089874687 6:-8.7465296 #
4.1945288323948863862256075663026 1:295.95438 2:0.084003843 3:120.1815 4:-9.6860743 5:-0.0024399455 6:-3.1156828 #
-4.1945288323948863862256075663026 1:160.84482 2:0.27055129 3:90.339317 4:2.4088371 5:-0.010099458 6:28.884586 #
4.1945288323948863862256075663026 1:58.934258 2:0.10176593 3:14.523809 4:3.1547363 5:0.0090270881 6:-8.2998629 #
-1.5972644161974431931128037831513 1:85.444412 2:0.082435399 3:45.261917 4:0.93867391 5:-0.0043727504 6:16.273058 #
-4.1945288323948863862256075663026 1:222.22073 2:0.15907221 3:397.12701 4:9.6542053 5:0.0057365461 6:-88.889809 #
4.1945288323948863862256075663026 1:184.78123 2:0.082506269 3:98.460068 4:22.355883 5:-0.0030896699 6:-30.57954 #
-4.1945288323948863862256075663026 1:139.82172 2:0.087193348 3:150.24411 4:2.9821479 5:0.0043424428 6:-13.536734 #
4.1945288323948863862256075663026 1:43.848278 2:0.092558064 3:6.7540565 4:-0.9793402 5:0.004232178 6:-2.1633978 #
-4.1945288323948863862256075663026 1:320.71771 2:0.081397377 3:192.46007 4:-6.3735662 5:-0.0082180044 6:-0.91048366 #
4.1945288323948863862256075663026 1:268.13199 2:0.080273241 3:156.37416 4:-4.6623917 5:-0.0054847137 6:21.413124 #
-4.1945288323948863862256075663026 1:98.674683 2:0.22934482 3:110.51489 4:4.315753 5:-0.0041799946 6:-29.506184 #
4.1945288323948863862256075663026 1:40.263199 2:0.082741298 3:10.412504 4:-0.72205228 5:-0.0084338086 6:-2.0082359 #
-4.1945288323948863862256075663026 1:182.91893 2:0.091269292 3:126.20072 4:-0.47671923 5:0.0086425655 6:8.213728 #
4.1945288323948863862256075663026 1:121.61637 2:0.089797206 3:142.30092 4:6.9565697 5:0.003039144 6:15.535892 #
-4.1945288323948863862256075663026 1:58.565773 2:0.090087458 3:19.463579 4:5.203249 5:0.0017365786 6:3.4226952 #
4.1945288323948863862256075663026 1:112.01362 2:0.18629755 3:50.670746 4:-1.3880694 5:0.0093592405 6:8.4178286 #
-4.1945288323948863862256075663026 1:240.29839 2:0.094368301 3:51.355827 4:14.506978 5:0.002129101 6:10.996394 #
4.1945288323948863862256075663026 1:160.50566 2:0.080365278 3:187.88763 4:20.15419 5:-9.6582335e-05 6:-51.688961 #
-4.1945288323948863862256075663026 1:103.39367 2:0.083214283 3:222.4124 4:21.831009 5:0.0029410454 6:55.744373 #
4.1945288323948863862256075663026 1:72.106194 2:0.085757956 3:167.15488 4:7.6071596 5:-0.0010124979 6:-16.690035 #
-4.1945288323948863862256075663026 1:229.66605 2:0.07630004 3:245.77354 4:1.5543203 5:0.0021331194 6:17.146992 #
4.1945288323948863862256075663026 1:267.85959 2:0.080909371 3:105.09027 4:-7.4797368 5:0.0025284179 6:-12.738987 #
-4.1945288323948863862256075663026 1:24.075899 2:0.10459276 3:15.768707 4:1.708172 5:0.014664187 6:-0.60479665 #
4.1945288323948863862256075663026 1:41.505077 2:0.089045189 3:14.523809 4:2.3615551 5:0.0019268831 6:-12.269197 #
-4.1945288323948863862256075663026 1:54.40374 2:0.090087458 3:33.827076 4:5.315732 5:0.0045413682 6:-3.6016536 #
4.1945288323948863862256075663026 1:53.362526 2:0.088350877 3:16.040884 4:-1.1421643 5:0.0042988262 6:-2.5371454 #
-4.1945288323948863862256075663026 1:2.2461319 2:0.087193348 3:6.1300521 4:0.034285519 5:0.0028889179 6:1.631351 #
4.1945288323948863862256075663026 1:157.18228 2:0.090266347 3:143.9474 4:17.360579 5:0.0030729966 6:-6.2967124 #
-4.1945288323948863862256075663026 1:228.11172 2:0.074166924 3:228.62656 4:-0.80320787 5:0.001286388 6:46.878952 #
4.1945288323948863862256075663026 1:15.120907 2:0.17622185 3:24.092165 4:1.924747 5:-0.0048867711 6:-9.9181595 #
-4.1945288323948863862256075663026 1:297.03479 2:0.17901784 3:210.92392 4:2.7123506 5:0.013237567 6:-20.260502 #
4.1945288323948863862256075663026 1:169.39168 2:0.18024345 3:204.59654 4:8.3511 5:0.0059122383 6:-101.36615 #
-4.1945288323948863862256075663026 1:2.4512696 2:0.064010993 3:20.956413 4:0.2997483 5:-0.003434736 6:-5.7859282 #
4.1945288323948863862256075663026 1:20.215597 2:0.090087458 3:28.935162 4:3.5311902 5:-0.002470606 6:-26.691999 #
-4.1945288323948863862256075663026 1:225.79141 2:0.092239201 3:40.359432 4:-4.9722686 5:0.0052530994 6:-29.500477 #
4.1945288323948863862256075663026 1:68.843735 2:0.079074591 3:146.85612 4:8.4912996 5:0.0076046456 6:27.47669 #
-4.1945288323948863862256075663026 1:81.56266 2:0.080273241 3:166.66803 4:9.4564724 5:-0.0054847137 6:-0.48684561 #
4.1945288323948863862256075663026 1:254.56946 2:0.080365278 3:236.54016 4:24.9034 5:0.0040652379 6:-9.2333879 #
-4.1945288323948863862256075663026 1:292.99854 2:0.0846247 3:161.82693 4:24.866549 5:0.0043514571 6:5.4527774 #
4.1945288323948863862256075663026 1:131.44933 2:0.085347988 3:98.431641 4:18.359993 5:0.0024459483 6:-31.937277 #
-4.1945288323948863862256075663026 1:402.24564 2:0.16647309 3:332.59912 4:-0.88715571 5:0.0087952446 6:-25.225826 #
4.1945288323948863862256075663026 1:762.01263 2:0.24932529 3:446.22827 4:27.410233 5:0.0030024962 6:-42.620766 #
-4.1945288323948863862256075663026 1:615.23572 2:0.28556797 3:288.01678 4:10.232533 5:0.0037900875 6:8.2981606 #
4.1945288323948863862256075663026 1:228.91495 2:0.072880536 3:181.7476 4:28.048916 5:-0.012715401 6:36.362976 #
-4.1945288323948863862256075663026 1:305.64044 2:0.086443789 3:123.29719 4:58.417816 5:0.033980791 6:-67.235977 #
4.1945288323948863862256075663026 1:4.7340646 2:0.079756059 3:36.478649 4:0.5380764 5:-0.0058398787 6:-5.9610453 #
-4.1945288323948863862256075663026 1:407.74945 2:0.17503978 3:275.75128 4:-1.3195395 5:-0.00076666655 6:-12.604142 #
4.1945288323948863862256075663026 1:230.22852 2:0.085809328 3:138.33099 4:-3.1950016 5:-0.0014021527 6:-30.229723 #
-4.1945288323948863862256075663026 1:310.94888 2:0.080273241 3:156.37416 4:-9.7688408 5:-0.0011241396 6:-36.085903 #
1.5972644161974431931128037831513 1:454.60495 2:0.13413163 3:267.00549 4:14.0468 5:0.0031890147 6:32.848705 #
-4.1945288323948863862256075663026 1:223.27602 2:0.094435371 3:63.740803 4:-4.4296727 5:0.0014755527 6:-7.4515162 #
4.1945288323948863862256075663026 1:182.91936 2:0.085809328 3:123.642 4:-2.1384473 5:0.0015048966 6:-26.080404 #
-4.1945288323948863862256075663026 1:203.05833 2:0.081853524 3:138.66541 4:19.942419 5:0.0041662105 6:-3.3968532 #
4.1945288323948863862256075663026 1:24.050373 2:0.089750499 3:14.650104 4:-0.025527619 5:-0.014842263 6:-1.1186039 #
-4.1945288323948863862256075663026 1:45.936226 2:0.083391525 3:14.108844 4:2.8783498 5:-0.0051319133 6:-7.2263284 #
4.1945288323948863862256075663026 1:44.827618 2:0.08832588 3:8.9174547 4:-1.1086092 5:0.0049343598 6:-5.1913891 #
-4.1945288323948863862256075663026 1:184.30484 2:0.089615382 3:137.80431 4:24.554377 5:0.0039031091 6:-3.150131 #
4.1945288323948863862256075663026 1:327.09128 2:0.089615382 3:193.37054 4:43.090473 5:-0.00031224874 6:-16.111134 #
-4.1945288323948863862256075663026 1:496.36887 2:0.14028341 3:331.50888 4:-6.0615635 5:-0.025727982 6:47.167492 #
4.1945288323948863862256075663026 1:230.76367 2:0.086986102 3:69.859909 4:-3.8344455 5:-0.007938398 6:-20.581261 #
-4.1945288323948863862256075663026 1:257.63696 2:0.076703399 3:144.82976 4:23.020466 5:-0.0042613 6:8.3496799 #
4.1945288323948863862256075663026 1:24.544004 2:0.091155671 3:11.53818 4:0.49363169 5:0.0014051719 6:-3.1119235 #
4.1945288323948863862256075663026 1:170.51082 2:0.26308262 3:489.12277 4:24.459194 5:0.0058805873 6:39.445751 #
-4.1945288323948863862256075663026 1:239.97517 2:0.08262673 3:105.07813 4:-7.2881079 5:-0.0023999466 6:-23.448174 #
4.1945288323948863862256075663026 1:234.61649 2:0.080964699 3:136.48007 4:-5.3586774 5:-0.0016620319 6:31.401941 #
-4.1945288323948863862256075663026 1:183.39566 2:0.08262673 3:117.987 4:-2.2917063 5:-0.0038170577 6:7.6250062 #
4.1945288323948863862256075663026 1:644.81793 2:0.24869359 3:380.00696 4:46.105061 5:9.5095624e-05 6:18.965263 #
