SVM-light Version V6.02
3 # kernel type
3 # kernel parameter -d 
1 # kernel parameter -g 
1 # kernel parameter -s 
4 # kernel parameter -r 
empty# kernel parameter -u 
13 # highest feature index 
149 # number of training documents 
147 # number of support vectors plus 1 
-1 # threshold b, each following line is a SV (starting with alpha*y)
-1490.9789935208175393199780955911 7:10087200 8:4321400 9:4968100 10:5765800 11:-646700 12:7204300 13:4644750 #
1490.9789935208175393199780955911 7:3010700 8:4910000 9:1874200 10:-1899300 11:3035800 12:3960350 13:3392100 #
1490.9789935208175393199780955911 7:4263200 8:2413300 9:2863400 10:1849900 11:-450100 12:3338250 13:2638350 #
-1490.9789935208175393199780955911 7:13075400 8:10087200 9:4321400 10:2988200 11:5765800 12:11581300 13:7204300 #
1490.9789935208175393199780955911 7:2326900 8:4263200 9:2413300 10:-1936300 11:1849900 12:3295050 13:3338250 #
-1490.9789935208175393199780955911 7:6772100 8:13075400 9:10087200 10:-6303300 11:2988200 12:9923750 13:11581300 #
1490.9789935208175393199780955911 7:1884600 8:2065600 9:2326900 10:-181000 11:-261300 12:1975100 13:2196250 #
-1490.9789935208175393199780955911 7:6115000 8:6772100 9:13075400 10:-657100 11:-6303300 12:6443550 13:9923750 #
1490.9789935208175393199780955911 7:2942000 8:1884600 9:2065600 10:1057400 11:-181000 12:2413300 13:1975100 #
-1490.9789935208175393199780955911 7:4012900 8:3723600 9:6115000 10:289300 11:-2391400 12:3868250 13:4919300 #
1490.9789935208175393199780955911 7:2137700 8:2942000 9:1884600 10:-804300 11:1057400 12:2539850 13:2413300 #
-1490.9789935208175393199780955911 7:2770400 8:4012900 9:3723600 10:-1242500 11:289300 12:3391650 13:3868250 #
1490.9789935208175393199780955911 7:2508900 8:2137700 9:2942000 10:371200 11:-804300 12:2323300 13:2539850 #
-1490.9789935208175393199780955911 7:3403700 8:3879200 9:3975700 10:-475500 11:-96500 12:3641450 13:3927450 #
1490.9789935208175393199780955911 7:3330200 8:2508900 9:2137700 10:821300 11:371200 12:2919550 13:2323300 #
-1490.9789935208175393199780955911 7:2943700 8:3403700 9:3879200 10:-460000 11:-475500 12:3173700 13:3641450 #
1490.9789935208175393199780955911 7:4968100 8:3330200 9:2508900 10:1637900 11:821300 12:4149150 13:2919550 #
-1490.9789935208175393199780955911 7:3528900 8:2854200 9:3979900 10:674700 11:-1125700 12:3191550 13:3417050 #
1490.9789935208175393199780955911 7:3723600 8:6115000 9:6772100 10:-2391400 11:-657100 12:4919300 13:6443550 #
-1490.9789935208175393199780955911 7:55512100 8:71431296 9:49047900 10:-15919200 11:22383400 12:63471700 13:60239600 #
1490.9789935208175393199780955911 7:3975700 8:2770400 9:4012900 10:1205300 11:-1242500 12:3373050 13:3391650 #
-1490.9789935208175393199780955911 7:48324400 8:55512100 9:71431296 10:-7187700 11:-15919200 12:51918248 13:63471700 #
1490.9789935208175393199780955911 7:3879200 8:3975700 9:2770400 10:-96500 11:1205300 12:3927450 13:3373050 #
-1490.9789935208175393199780955911 7:52167700 8:51685900 9:41077400 10:481800 11:10608500 12:51926800 13:46381648 #
1490.9789935208175393199780955911 7:3979900 8:3463000 9:5293000 10:516900 11:-1830000 12:3721450 13:4378000 #
-1490.9789935208175393199780955911 7:81847696 8:1.017393e+08 9:50387700 10:-19891600 11:51351600 12:91793504 13:76063504 #
1490.9789935208175393199780955911 7:3637400 8:3528900 9:2854200 10:108500 11:674700 12:3583150 13:3191550 #
-1490.9789935208175393199780955911 7:50530000 8:43580500 9:49242600 10:6949500 11:-5662100 12:47055248 13:46411552 #
1490.9789935208175393199780955911 7:3348600 8:3032400 9:3124800 10:316200 11:-92400 12:3190500 13:3078600 #
-1490.9789935208175393199780955911 7:55565900 8:50530000 9:43580500 10:5035900 11:6949500 12:53047952 13:47055248 #
1490.9789935208175393199780955911 7:52521100 8:48294400 9:52899300 10:4226700 11:-4604900 12:50407752 13:50596848 #
-1490.9789935208175393199780955911 7:35410400 8:50540000 9:55565900 10:-15129600 11:-5025900 12:42975200 13:53052952 #
1490.9789935208175393199780955911 7:44703100 8:37110400 9:52521100 10:7592700 11:-15410700 12:40906752 13:44815752 #
-1490.9789935208175393199780955911 7:38028300 8:41889600 9:35410400 10:-3861300 11:6479200 12:39958952 13:38650000 #
1490.9789935208175393199780955911 7:48244500 8:48324400 9:55512100 10:-79900 11:-7187700 12:48284448 13:51918248 #
-1490.9789935208175393199780955911 7:35990900 8:32247700 9:33318500 10:3743200 11:-1070800 12:34119300 13:32783100 #
1490.9789935208175393199780955911 7:58650600 8:52167700 9:51685900 10:6482900 11:481800 12:55409152 13:51926800 #
-1490.9789935208175393199780955911 7:48011800 8:31425900 9:49078500 10:16585900 11:-17652600 12:39718848 13:40252200 #
1490.9789935208175393199780955911 7:50540000 8:55565900 9:50530000 10:-5025900 11:5035900 12:53052952 13:53047952 #
-1490.9789935208175393199780955911 7:36394700 8:49923300 9:48011800 10:-13528600 11:1911500 12:43159000 13:48967552 #
1490.9789935208175393199780955911 7:33318500 8:38028300 9:41889600 10:-4709800 11:-3861300 12:35673400 13:39958952 #
-1490.9789935208175393199780955911 7:12518100 8:21469500 9:14557300 10:-8951400 11:6912200 12:16993800 13:18013400 #
1490.9789935208175393199780955911 7:32247700 8:33318500 9:38028300 10:-1070800 11:-4709800 12:32783100 13:35673400 #
-1490.9789935208175393199780955911 7:52173300 8:30768200 9:16483800 10:21405100 11:14284400 12:41470752 13:23626000 #
1490.9789935208175393199780955911 7:41715600 8:35990900 9:32247700 10:5724700 11:3743200 12:38853248 13:34119300 #
-1490.9789935208175393199780955911 7:43143800 8:52173300 9:30768200 10:-9029500 11:21405100 12:47658552 13:41470752 #
1490.9789935208175393199780955911 7:49650900 8:32663200 9:41715600 10:16987700 11:-9052400 12:41157048 13:37189400 #
-1490.9789935208175393199780955911 7:14898400 8:20398500 9:28054200 10:-5500100 11:-7655700 12:17648450 13:24226350 #
1490.9789935208175393199780955911 7:38781400 8:49650900 9:32663200 10:-10869500 11:16987700 12:44216152 13:41157048 #
-1490.9789935208175393199780955911 7:20476700 8:17039900 9:19267300 10:3436800 11:-2227400 12:18758300 13:18153600 #
1490.9789935208175393199780955911 7:31425900 8:49078500 9:44110200 10:-17652600 11:4968300 12:40252200 13:46594352 #
-1490.9789935208175393199780955911 7:22612800 8:25163600 9:21203800 10:-2550800 11:3959800 12:23888200 13:23183700 #
1490.9789935208175393199780955911 7:17291300 8:21226200 9:12605900 10:-3934900 11:8620300 12:19258750 13:16916050 #
-1490.9789935208175393199780955911 7:18481800 8:22612800 9:25163600 10:-4131000 11:-2550800 12:20547300 13:23888200 #
1490.9789935208175393199780955911 7:14557300 8:16382400 9:17291300 10:-1825100 11:-908900 12:15469850 13:16836850 #
-1490.9789935208175393199780955911 7:15563700 8:13990900 9:12688400 10:1572800 11:1302500 12:14777300 13:13339650 #
1490.9789935208175393199780955911 7:21469500 8:14557300 9:16382400 10:6912200 11:-1825100 12:18013400 13:15469850 #
-1490.9789935208175393199780955911 7:83781800 8:72715400 9:63140600 10:11066400 11:9574800 12:78248600 13:67928000 #
1490.9789935208175393199780955911 7:31313300 8:26221700 9:12518100 10:5091600 11:13703600 12:28767500 13:19369900 #
-1490.9789935208175393199780955911 7:45871300 8:83781800 9:72715400 10:-37910500 11:11066400 12:64826552 13:78248600 #
1490.9789935208175393199780955911 7:20398500 8:28054200 9:43143800 10:-7655700 11:-15089600 12:24226350 13:35599000 #
-1490.9789935208175393199780955911 7:89598000 8:95316400 9:1.047877e+08 10:-5718400 11:-9471300 12:92457200 13:1.0005205e+08 #
1490.9789935208175393199780955911 7:19267300 8:11404800 9:14898400 10:7862500 11:-3493600 12:15336050 13:13151600 #
-1490.9789935208175393199780955911 7:98892800 8:89598000 9:95316400 10:9294800 11:-5718400 12:94245400 13:92457200 #
1490.9789935208175393199780955911 7:25163600 8:21203800 9:20476700 10:3959800 11:727100 12:23183700 13:20840250 #
-1490.9789935208175393199780955911 7:40256700 8:75332704 9:1.7324259e+08 10:-35076000 11:-97909904 12:57794700 13:1.2428765e+08 #
1490.9789935208175393199780955911 7:21751900 8:18481800 9:22612800 10:3270100 11:-4131000 12:20116850 13:20547300 #
-1490.9789935208175393199780955911 7:49631500 8:40256700 9:75332704 10:9374800 11:-35076000 12:44944100 13:57794700 #
1490.9789935208175393199780955911 7:16971700 8:21751900 9:18481800 10:-4780200 11:3270100 12:19361800 13:20116850 #
-1490.9789935208175393199780955911 7:43845100 8:48899800 9:55243300 10:-5054700 11:-6343500 12:46372448 13:52071552 #
1490.9789935208175393199780955911 7:12688400 8:16971700 9:21751900 10:-4283300 11:-4780200 12:14830050 13:19361800 #
-1490.9789935208175393199780955911 7:72976496 8:59682500 9:54363600 10:13294000 11:5318900 12:66329500 13:57023048 #
1490.9789935208175393199780955911 7:17910700 8:13306400 9:11809100 10:4604300 11:1497300 12:15608550 13:12557750 #
-1490.9789935208175393199780955911 7:1.907449e+08 8:87682096 9:72976496 10:1.030628e+08 11:14705600 12:1.392135e+08 13:80329296 #
1490.9789935208175393199780955911 7:72715400 8:63140600 9:69846400 10:9574800 11:-6705800 12:67928000 13:66493500 #
-1490.9789935208175393199780955911 7:85856704 8:1.907449e+08 9:87682096 10:-1.048882e+08 11:1.030628e+08 12:1.383008e+08 13:1.392135e+08 #
1490.9789935208175393199780955911 7:1.047877e+08 8:45871300 9:83781800 10:58916400 11:-37910500 12:75329504 13:64826552 #
-1490.9789935208175393199780955911 7:37708800 8:34540100 9:38375900 10:3168700 11:-3835800 12:36124448 13:36458000 #
1490.9789935208175393199780955911 7:95316400 8:1.047877e+08 9:45871300 10:-9471300 11:58916400 12:1.0005205e+08 13:75329504 #
-1490.9789935208175393199780955911 7:37361800 8:37708800 9:34540100 10:-347000 11:3168700 12:37535300 13:36124448 #
1490.9789935208175393199780955911 7:1.7324259e+08 8:98892800 9:89598000 10:74349800 11:9294800 12:1.360677e+08 13:94245400 #
-1490.9789935208175393199780955911 7:49396400 8:33109300 9:35615800 10:16287100 11:-2506500 12:41252848 13:34362552 #
1490.9789935208175393199780955911 7:75332704 8:1.7324259e+08 9:98892800 10:-97909904 11:74349800 12:1.2428765e+08 13:1.360677e+08 #
-1490.9789935208175393199780955911 7:42098200 8:49396400 9:33109300 10:-7298200 11:16287100 12:45747300 13:41252848 #
1490.9789935208175393199780955911 7:48899800 8:55243300 9:49631500 10:-6343500 11:5611800 12:52071552 13:52437400 #
-1490.9789935208175393199780955911 7:49642300 8:42098200 9:49396400 10:7544100 11:-7298200 12:45870248 13:45747300 #
1490.9789935208175393199780955911 7:59682500 8:54363600 9:43845100 10:5318900 11:10518500 12:57023048 13:49104352 #
-1490.9789935208175393199780955911 7:31611700 8:34652000 9:36350200 10:-3040300 11:-1698200 12:33131850 13:35501100 #
1490.9789935208175393199780955911 7:87682096 8:72976496 9:59682500 10:14705600 11:13294000 12:80329296 13:66329500 #
-1490.9789935208175393199780955911 7:1676100 8:1655700 9:2763500 10:20400 11:-1107800 12:1665900 13:2209600 #
1490.9789935208175393199780955911 7:92362200 8:85856704 9:1.907449e+08 10:6505500 11:-1.048882e+08 12:89109448 13:1.383008e+08 #
-1490.9789935208175393199780955911 7:1285200 8:1835700 9:2024700 10:-550500 11:-189000 12:1560450 13:1930200 #
1490.9789935208175393199780955911 7:34540100 8:38375900 9:47948200 10:-3835800 11:-9572300 12:36458000 13:43162048 #
-1490.9789935208175393199780955911 7:3779100 8:3226800 9:2211500 10:552300 11:1015300 12:3502950 13:2719150 #
1490.9789935208175393199780955911 7:50164000 8:93447800 9:37361800 10:-43283800 11:56086000 12:71805904 13:65404800 #
-1490.9789935208175393199780955911 7:1627100 8:2225900 9:3382700 10:-598800 11:-1156800 12:1926500 13:2804300 #
1490.9789935208175393199780955911 7:33109300 8:35615800 9:50164000 10:-2506500 11:-14548200 12:34362552 13:42889900 #
-1490.9789935208175393199780955911 7:1733000 8:1747100 9:1627100 10:-14100 11:120000 12:1740050 13:1687100 #
1490.9789935208175393199780955911 7:34652000 8:36350200 9:49642300 10:-1698200 11:-13292100 12:35501100 13:42996248 #
-1490.9789935208175393199780955911 7:1634200 8:1733000 9:1747100 10:-98800 11:-14100 12:1683600 13:1740050 #
1490.9789935208175393199780955911 7:2763500 8:2318200 9:2541300 10:445300 11:-223100 12:2540850 13:2429750 #
-1490.9789935208175393199780955911 7:1870700 8:3040500 9:3746100 10:-1169800 11:-705600 12:2455600 13:3393300 #
1490.9789935208175393199780955911 7:1835700 8:2024700 9:1676100 10:-189000 11:348600 12:1930200 13:1850400 #
-1490.9789935208175393199780955911 7:2078100 8:1870700 9:3040500 10:207400 11:-1169800 12:1974400 13:2455600 #
1490.9789935208175393199780955911 7:2863900 8:1285200 9:1835700 10:1578700 11:-550500 12:2074550 13:1560450 #
-1490.9789935208175393199780955911 7:2840200 8:2078100 9:1870700 10:762100 11:207400 12:2459150 13:1974400 #
1490.9789935208175393199780955911 7:3927700 8:2863900 9:1285200 10:1063800 11:1578700 12:3395800 13:2074550 #
-1490.9789935208175393199780955911 7:3020100 8:2840200 9:2078100 10:179900 11:762100 12:2930150 13:2459150 #
1490.9789935208175393199780955911 7:2023400 8:3927700 9:2863900 10:-1904300 11:1063800 12:2975550 13:3395800 #
-1490.9789935208175393199780955911 7:1735300 8:1198200 9:1859000 10:537100 11:-660800 12:1466750 13:1528600 #
1490.9789935208175393199780955911 7:2211500 8:2023400 9:3927700 10:188100 11:-1904300 12:2117450 13:2975550 #
-1490.9789935208175393199780955911 7:2931800 8:2729800 9:1735300 10:202000 11:994500 12:2830800 13:2232550 #
1490.9789935208175393199780955911 7:1747100 8:1627100 9:2225900 10:120000 11:-598800 12:1687100 13:1926500 #
-1490.9789935208175393199780955911 7:2053900 8:3506400 9:2764200 10:-1452500 11:742200 12:2780150 13:3135300 #
1490.9789935208175393199780955911 7:3746100 8:1634200 9:1733000 10:2111900 11:-98800 12:2690150 13:1683600 #
-1490.9789935208175393199780955911 7:2303900 8:2053900 9:3506400 10:250000 11:-1452500 12:2178900 13:2780150 #
1490.9789935208175393199780955911 7:3040500 8:3746100 9:1634200 10:-705600 11:2111900 12:3393300 13:2690150 #
-1490.9789935208175393199780955911 7:34290000 8:48672000 9:36352100 10:-14382000 11:12319900 12:41481000 13:42512048 #
1490.9789935208175393199780955911 7:1859000 8:2167700 9:3020100 10:-308700 11:-852400 12:2013350 13:2593900 #
-1490.9789935208175393199780955911 7:44621600 8:34290000 9:48672000 10:10331600 11:-14382000 12:39455800 13:41481000 #
1490.9789935208175393199780955911 7:1198200 8:1859000 9:2167700 10:-660800 11:-308700 12:1528600 13:2013350 #
-1490.9789935208175393199780955911 7:36763700 8:33990300 9:35724500 10:2773400 11:-1734200 12:35377000 13:34857400 #
1490.9789935208175393199780955911 7:2764200 8:2931800 9:2729800 10:-167600 11:202000 12:2848000 13:2830800 #
-1490.9789935208175393199780955911 7:42432300 8:51127400 9:1.437604e+08 10:-8695100 11:-92633000 12:46779848 13:97443904 #
1490.9789935208175393199780955911 7:2202500 8:2303900 9:2053900 10:-101400 11:250000 12:2253200 13:2178900 #
-1490.9789935208175393199780955911 7:1.057031e+08 8:1.053983e+08 9:1.076328e+08 10:304800 11:-2234500 12:1.055507e+08 13:1.0651555e+08 #
1490.9789935208175393199780955911 7:48672000 8:36352100 9:30142500 10:12319900 11:6209600 12:42512048 13:33247300 #
-1490.9789935208175393199780955911 7:36534100 8:34151300 9:1.057031e+08 10:2382800 11:-71551800 12:35342700 13:69927200 #
1490.9789935208175393199780955911 7:44944700 8:44621600 9:34290000 10:323100 11:10331600 12:44783152 13:39455800 #
-1490.9789935208175393199780955911 7:30076500 8:38345600 9:31867100 10:-8269100 11:6478500 12:34211048 13:35106352 #
1490.9789935208175393199780955911 7:35724500 8:44944700 9:44621600 10:-9220200 11:323100 12:40334600 13:44783152 #
-1490.9789935208175393199780955911 7:32361000 8:30076500 9:38345600 10:2284500 11:-8269100 12:31218750 13:34211048 #
1490.9789935208175393199780955911 7:33990300 8:35724500 9:44944700 10:-1734200 11:-9220200 12:34857400 13:40334600 #
-1490.9789935208175393199780955911 7:28150100 8:41015200 9:32361000 10:-12865100 11:8654200 12:34582648 13:36688100 #
1490.9789935208175393199780955911 7:1.437604e+08 8:1.010206e+08 9:36763700 10:42739800 11:64256900 12:1.223905e+08 13:68892152 #
-1490.9789935208175393199780955911 7:21267200 8:28391400 9:18897200 10:-7124200 11:9494200 12:24829300 13:23644300 #
1490.9789935208175393199780955911 7:51127400 8:1.437604e+08 9:1.010206e+08 10:-92633000 11:42739800 12:97443904 13:1.223905e+08 #
-1490.9789935208175393199780955911 7:31061600 8:33809100 9:35262200 10:-2747500 11:-1453100 12:32435350 13:34535648 #
1490.9789935208175393199780955911 7:1.053983e+08 8:1.076328e+08 9:58396800 10:-2234500 11:49236000 12:1.0651555e+08 13:83014800 #
-1490.9789935208175393199780955911 7:4321400 8:4968100 9:3330200 10:-646700 11:1637900 12:4644750 13:4149150 #
1490.9789935208175393199780955911 7:34151300 8:1.057031e+08 9:1.053983e+08 10:-71551800 11:304800 12:69927200 13:1.055507e+08 #
-1490.9789935208175393199780955911 7:2065600 8:2326900 9:4263200 10:-261300 11:-1936300 12:2196250 13:3295050 #
-1490.9789935208175393199780955911 7:2863400 8:2265600 9:3010700 10:597800 11:-745100 12:2564500 13:2638150 #
1490.9789935208175393199780955911 7:38345600 8:31867100 9:36534100 10:6478500 11:-4667000 12:35106352 13:34200600 #
-1490.9789935208175393199780955911 7:1874200 8:2750900 9:3271000 10:-876700 11:-520100 12:2312550 13:3010950 #
1490.9789935208175393199780955911 7:41015200 8:32361000 9:30076500 10:8654200 11:2284500 12:36688100 13:31218750 #
