SVM-light Version V6.02
3 # kernel type
3 # kernel parameter -d 
1 # kernel parameter -g 
1 # kernel parameter -s 
1 # kernel parameter -r 
empty# kernel parameter -u 
13 # highest feature index 
113 # number of training documents 
113 # number of support vectors plus 1 
1 # threshold b, each following line is a SV (starting with alpha*y)
-0.040000000000000000832667268468867 7:29196700 8:51448500 9:41432200 10:-22251800 11:10016300 12:40322600 13:46440352 #
0.040000000000000000832667268468867 7:49078500 8:44110200 9:38781400 10:4968300 11:5328800 12:46594352 13:41445800 #
0.040000000000000000832667268468867 7:31425900 8:49078500 9:44110200 10:-17652600 11:4968300 12:40252200 13:46594352 #
-0.040000000000000000832667268468867 7:55914800 8:29093400 9:39255200 10:26821400 11:-10161800 12:42504100 13:34174300 #
0.040000000000000000832667268468867 7:35840200 8:36394700 9:49923300 10:-554500 11:-13528600 12:36117448 13:43159000 #
-0.040000000000000000832667268468867 7:51901600 8:44809400 9:92710304 10:7092200 11:-47900900 12:48355500 13:68759848 #
0.040000000000000000832667268468867 7:38157500 8:34849700 9:35840200 10:3307800 11:-990500 12:36503600 13:35344952 #
-0.040000000000000000832667268468867 7:28689600 8:34233200 9:35447800 10:-5543600 11:-1214600 12:31461400 13:34840500 #
0.040000000000000000832667268468867 7:41432200 8:38157500 9:34849700 10:3274700 11:3307800 12:39794848 13:36503600 #
-0.040000000000000000832667268468867 7:27824300 8:44154000 9:28689600 10:-16329700 11:15464400 12:35989152 13:36421800 #
0.040000000000000000832667268468867 7:36627500 8:37667800 9:29196700 10:-1040300 11:8471100 12:37147648 13:33432250 #
-0.040000000000000000832667268468867 7:55453800 8:36047400 9:27824300 10:19406400 11:8223100 12:45750600 13:31935850 #
0.040000000000000000832667268468867 7:39255200 8:36627500 9:37667800 10:2627700 11:-1040300 12:37941352 13:37147648 #
-0.040000000000000000832667268468867 7:13990900 8:12688400 9:16971700 10:1302500 11:-4283300 12:13339650 13:14830050 #
0.040000000000000000832667268468867 7:92710304 8:55914800 9:29093400 10:36795500 11:26821400 12:74312552 13:42504100 #
-0.040000000000000000832667268468867 7:13306400 8:11809100 9:15970800 10:1497300 11:-4161700 12:12557750 13:13889950 #
0.040000000000000000832667268468867 7:35447800 8:51901600 9:44809400 10:-16453800 11:7092200 12:43674700 13:48355500 #
-0.040000000000000000832667268468867 7:17910700 8:13306400 9:11809100 10:4604300 11:1497300 12:15608550 13:12557750 #
0.040000000000000000832667268468867 7:44154000 8:28689600 9:34233200 10:15464400 11:-5543600 12:36421800 13:31461400 #
-0.040000000000000000832667268468867 7:11518400 8:20976800 9:17910700 10:-9458400 11:3066100 12:16247600 13:19443750 #
0.040000000000000000832667268468867 7:50927300 8:45263200 9:35062800 10:5664100 11:10200400 12:48095248 13:40163000 #
-0.040000000000000000832667268468867 7:19730300 8:11518400 9:20976800 10:8211900 11:-9458400 12:15624350 13:16247600 #
0.040000000000000000832667268468867 7:77733800 8:34759500 9:50927300 10:42974300 11:-16167800 12:56246648 13:42843400 #
-0.040000000000000000832667268468867 7:16437500 8:22801200 9:20812700 10:-6363700 11:1988500 12:19619350 13:21806950 #
0.040000000000000000832667268468867 7:15563700 8:13990900 9:12688400 10:1572800 11:1302500 12:14777300 13:13339650 #
-0.040000000000000000832667268468867 7:16731200 8:16437500 9:22801200 10:293700 11:-6363700 12:16584350 13:19619350 #
0.040000000000000000832667268468867 7:17010800 8:15563700 9:13990900 10:1447100 11:1572800 12:16287250 13:14777300 #
-0.040000000000000000832667268468867 7:13981500 8:16731200 9:16437500 10:-2749700 11:293700 12:15356350 13:16584350 #
0.040000000000000000832667268468867 7:16937000 8:13981500 9:16731200 10:2955500 11:-2749700 12:15459250 13:15356350 #
-0.040000000000000000832667268468867 7:10852700 8:14483900 9:16639700 10:-3631200 11:-2155800 12:12668300 13:15561800 #
0.040000000000000000832667268468867 7:21649900 8:22998600 9:10852700 10:-1348700 11:12145900 12:22324250 13:16925650 #
-0.040000000000000000832667268468867 7:18813400 8:21649900 9:22998600 10:-2836500 11:-1348700 12:20231650 13:22324250 #
0.040000000000000000832667268468867 7:11023600 8:18813400 9:21649900 10:-7789800 11:-2836500 12:14918500 13:20231650 #
-0.040000000000000000832667268468867 7:13687700 8:11023600 9:18813400 10:2664100 11:-7789800 12:12355650 13:14918500 #
0.040000000000000000832667268468867 7:17897700 8:14110900 9:13687700 10:3786800 11:423200 12:16004300 13:13899300 #
-0.040000000000000000832667268468867 7:10510500 8:17897700 9:14110900 10:-7387200 11:3786800 12:14204100 13:16004300 #
0.040000000000000000832667268468867 7:11829900 8:10510500 9:17897700 10:1319400 11:-7387200 12:11170200 13:14204100 #
-0.040000000000000000832667268468867 7:18911400 8:13903100 9:15815700 10:5008300 11:-1912600 12:16407250 13:14859400 #
0.040000000000000000832667268468867 7:49642300 8:42098200 9:49396400 10:7544100 11:-7298200 12:45870248 13:45747300 #
-0.040000000000000000832667268468867 7:10743900 8:13677700 9:12801700 10:-2933800 11:876000 12:12210800 13:13239700 #
0.040000000000000000832667268468867 7:34652000 8:36350200 9:49642300 10:-1698200 11:-13292100 12:35501100 13:42996248 #
-0.040000000000000000832667268468867 7:10950500 8:10743900 9:13677700 10:206600 11:-2933800 12:10847200 13:12210800 #
0.040000000000000000832667268468867 7:54064800 8:83027800 9:44319700 10:-28963000 11:38708100 12:68546304 13:63673752 #
-0.040000000000000000832667268468867 7:49396400 8:33109300 9:35615800 10:16287100 11:-2506500 12:41252848 13:34362552 #
0.040000000000000000832667268468867 7:40622200 8:32400700 9:54064800 10:8221500 11:-21664100 12:36511448 13:43232752 #
-0.040000000000000000832667268468867 7:31611700 8:34652000 9:36350200 10:-3040300 11:-1698200 12:33131850 13:35501100 #
0.040000000000000000832667268468867 7:74540200 8:33532600 9:40622200 10:41007600 11:-7089600 12:54036400 13:37077400 #
-0.040000000000000000832667268468867 7:32400700 8:54064800 9:83027800 10:-21664100 11:-28963000 12:43232752 13:68546304 #
0.040000000000000000832667268468867 7:44198900 8:74540200 9:33532600 10:-30341300 11:41007600 12:59369552 13:54036400 #
-0.040000000000000000832667268468867 7:33532600 8:40622200 9:32400700 10:-7089600 11:8221500 12:37077400 13:36511448 #
0.040000000000000000832667268468867 7:24310800 8:43952500 9:25254200 10:-19641700 11:18698300 12:34131648 13:34603352 #
-0.040000000000000000832667268468867 7:35642100 8:44198900 9:74540200 10:-8556800 11:-30341300 12:39920500 13:59369552 #
0.040000000000000000832667268468867 7:17662600 8:24310800 9:43952500 10:-6648200 11:-19641700 12:20986700 13:34131648 #
-0.040000000000000000832667268468867 7:27569600 8:35642100 9:44198900 10:-8072500 11:-8556800 12:31605850 13:39920500 #
0.040000000000000000832667268468867 7:81955296 8:48152800 9:35126700 10:33802500 11:13026100 12:65054048 13:41639752 #
-0.040000000000000000832667268468867 7:26653700 8:31597400 9:27646400 10:-4943700 11:3951000 12:29125550 13:29621900 #
0.040000000000000000832667268468867 7:27241100 8:64503500 9:81955296 10:-37262400 11:-17451800 12:45872300 13:73229400 #
-0.040000000000000000832667268468867 7:39171200 8:17662600 9:24310800 10:21508600 11:-6648200 12:28416900 13:20986700 #
0.040000000000000000832667268468867 7:2931800 8:2729800 9:1735300 10:202000 11:994500 12:2830800 13:2232550 #
-0.040000000000000000832667268468867 7:22220100 8:28574400 9:52267200 10:-6354300 11:-23692800 12:25397250 13:40420800 #
0.040000000000000000832667268468867 7:2202500 8:2303900 9:2053900 10:-101400 11:250000 12:2253200 13:2178900 #
-0.040000000000000000832667268468867 7:2729800 8:1735300 9:1198200 10:994500 11:537100 12:2232550 13:1466750 #
0.040000000000000000832667268468867 7:2265800 8:2026100 9:2202500 10:239700 11:-176400 12:2145950 13:2114300 #
-0.040000000000000000832667268468867 7:2764200 8:2931800 9:2729800 10:-167600 11:202000 12:2848000 13:2830800 #
0.040000000000000000832667268468867 7:4044100 8:2775600 9:2175400 10:1268500 11:600200 12:3409850 13:2475500 #
-0.040000000000000000832667268468867 7:2053900 8:3506400 9:2764200 10:-1452500 11:742200 12:2780150 13:3135300 #
0.040000000000000000832667268468867 7:1594700 8:2911900 9:2052700 10:-1317200 11:859200 12:2253300 13:2482300 #
-0.040000000000000000832667268468867 7:2303900 8:2053900 9:3506400 10:250000 11:-1452500 12:2178900 13:2780150 #
0.040000000000000000832667268468867 7:1463800 8:2098200 9:1838300 10:-634400 11:259900 12:1781000 13:1968250 #
-0.040000000000000000832667268468867 7:2026100 8:2202500 9:2303900 10:-176400 11:-101400 12:2114300 13:2253200 #
0.040000000000000000832667268468867 7:1488200 8:1466800 9:1463800 10:21400 11:3000 12:1477500 13:1465300 #
-0.040000000000000000832667268468867 7:2175400 8:2265800 9:2026100 10:-90400 11:239700 12:2220600 13:2145950 #
0.040000000000000000832667268468867 7:1712000 8:1488200 9:1466800 10:223800 11:21400 12:1600100 13:1477500 #
-0.040000000000000000832667268468867 7:2873000 8:4044100 9:2775600 10:-1171100 11:1268500 12:3458550 13:3409850 #
0.040000000000000000832667268468867 7:1807300 8:2287800 9:2163200 10:-480500 11:124600 12:2047550 13:2225500 #
-0.040000000000000000832667268468867 7:2052700 8:2873000 9:4044100 10:-820300 11:-1171100 12:2462850 13:3458550 #
0.040000000000000000832667268468867 7:1738500 8:2041500 9:1807300 10:-303000 11:234200 12:1890000 13:1924400 #
-0.040000000000000000832667268468867 7:2911900 8:2052700 9:2873000 10:859200 11:-820300 12:2482300 13:2462850 #
0.040000000000000000832667268468867 7:3433900 8:2447600 9:1738500 10:986300 11:709100 12:2940750 13:2093050 #
-0.040000000000000000832667268468867 7:1641300 8:2008300 9:1594700 10:-367000 11:413600 12:1824800 13:1801500 #
0.040000000000000000832667268468867 7:2832100 8:3433900 9:2447600 10:-601800 11:986300 12:3133000 13:2940750 #
-0.040000000000000000832667268468867 7:1651200 8:1641300 9:2008300 10:9900 11:-367000 12:1646250 13:1824800 #
0.040000000000000000832667268468867 7:2157300 8:2832100 9:3433900 10:-674800 11:-601800 12:2494700 13:3133000 #
-0.040000000000000000832667268468867 7:2098200 8:1838300 9:3099700 10:259900 11:-1261400 12:1968250 13:2469000 #
0.040000000000000000832667268468867 7:31061600 8:33809100 9:35262200 10:-2747500 11:-1453100 12:32435350 13:34535648 #
-0.040000000000000000832667268468867 7:1191900 8:1712000 9:1488200 10:-520100 11:223800 12:1451950 13:1600100 #
0.040000000000000000832667268468867 7:41525600 8:34534800 9:60754500 10:6990800 11:-26219700 12:38030200 13:47644648 #
-0.040000000000000000832667268468867 7:2163200 8:1191900 9:1712000 10:971300 11:-520100 12:1677550 13:1451950 #
0.040000000000000000832667268468867 7:47545800 8:45695700 9:34808000 10:1850100 11:10887700 12:46620752 13:40251848 #
-0.040000000000000000832667268468867 7:2287800 8:2163200 9:1191900 10:124600 11:971300 12:2225500 13:1677550 #
0.040000000000000000832667268468867 7:38796400 8:47545800 9:45695700 10:-8749400 11:1850100 12:43171100 13:46620752 #
-0.040000000000000000832667268468867 7:33809100 8:35262200 9:21267200 10:-1453100 11:13995000 12:34535648 13:28264700 #
0.040000000000000000832667268468867 7:28617300 8:42148200 9:44990500 10:-13530900 11:-2842300 12:35382752 13:43569352 #
-0.040000000000000000832667268468867 7:34534800 8:60754500 9:46119800 10:-26219700 11:14634700 12:47644648 13:53437152 #
0.040000000000000000832667268468867 7:24617400 8:28617300 9:42148200 10:-3999900 11:-13530900 12:26617350 13:35382752 #
-0.040000000000000000832667268468867 7:45695700 8:34808000 9:46966600 10:10887700 11:-12158600 12:40251848 13:40887300 #
0.040000000000000000832667268468867 7:32607200 8:29919000 9:42546000 10:2688200 11:-12627000 12:31263100 13:36232500 #
-0.040000000000000000832667268468867 7:44990500 8:42380000 9:37188900 10:2610500 11:5191100 12:43685248 13:39784448 #
0.040000000000000000832667268468867 7:32740700 8:30803200 9:32607200 10:1937500 11:-1804000 12:31771950 13:31705200 #
-0.040000000000000000832667268468867 7:29919000 8:42546000 9:35154400 10:-12627000 11:7391600 12:36232500 13:38850200 #
0.040000000000000000832667268468867 7:39548500 8:32740700 9:30803200 10:6807800 11:1937500 12:36144600 13:31771950 #
-0.040000000000000000832667268468867 7:30803200 8:32607200 9:29919000 10:-1804000 11:2688200 12:31705200 13:31263100 #
0.040000000000000000832667268468867 7:45370900 8:39548500 9:32740700 10:5822400 11:6807800 12:42459700 13:36144600 #
-0.040000000000000000832667268468867 7:33718100 8:33336700 9:45370900 10:381400 11:-12034200 12:33527400 13:39353800 #
0.040000000000000000832667268468867 7:36620800 8:28166700 9:33718100 10:8454100 11:-5551400 12:32393750 13:30942400 #
-0.040000000000000000832667268468867 7:61518700 8:34213000 9:36721600 10:27305700 11:-2508600 12:47865848 13:35467300 #
0.040000000000000000832667268468867 7:28702500 8:36620800 9:28166700 10:-7918300 11:8454100 12:32661650 13:32393750 #
-0.040000000000000000832667268468867 7:51448500 8:41432200 9:38157500 10:10016300 11:3274700 12:46440352 13:39794848 #
0.040000000000000000832667268468867 7:36721600 8:28702500 9:36620800 10:8019100 11:-7918300 12:32712050 13:32661650 #
-0.040000000000000000832667268468867 7:48011800 8:31425900 9:49078500 10:16585900 11:-17652600 12:39718848 13:40252200 #
-0.040000000000000000832667268468867 7:44110200 8:38781400 9:49650900 10:5328800 11:-10869500 12:41445800 13:44216152 #
0.040000000000000000832667268468867 7:34213000 8:36721600 9:28702500 10:-2508600 11:8019100 12:35467300 13:32712050 #
